<?xml version="1.0"?>
<opencv_storage>
<cascade>
  <stageType>BOOST</stageType>
  <featureType>HAAR</featureType>
  <height>48</height>
  <width>24</width>
  <stageParams>
    <boostType>GAB</boostType>
    <minHitRate>9.9500000476837158e-01</minHitRate>
    <maxFalseAlarm>5.0000000000000000e-01</maxFalseAlarm>
    <weightTrimRate>9.4999998807907104e-01</weightTrimRate>
    <maxDepth>1</maxDepth>
    <maxWeakCount>100</maxWeakCount></stageParams>
  <featureParams>
    <maxCatCount>0</maxCatCount>
    <featSize>1</featSize>
    <mode>BASIC</mode></featureParams>
  <stageNum>5</stageNum>
  <stages>
    <!-- stage 0 -->
    <_>
      <maxWeakCount>2</maxWeakCount>
      <stageThreshold>-3.4079152345657349e-01</stageThreshold>
      <weakClassifiers>
        <_>
          <internalNodes>
            0 -1 4 -4.3614155054092407e-01</internalNodes>
          <leafValues>
            9.3442624807357788e-01 -9.4163423776626587e-01</leafValues></_>
        <_>
          <internalNodes>
            0 -1 9 -2.1730665117502213e-02</internalNodes>
          <leafValues>
            6.0084271430969238e-01 -1.</leafValues></_></weakClassifiers></_>
    <!-- stage 1 -->
    <_>
      <maxWeakCount>2</maxWeakCount>
      <stageThreshold>1.7148356884717941e-02</stageThreshold>
      <weakClassifiers>
        <_>
          <internalNodes>
            0 -1 1 1.0993106290698051e-02</internalNodes>
          <leafValues>
            -9.4157743453979492e-01 9.0322577953338623e-01</leafValues></_>
        <_>
          <internalNodes>
            0 -1 5 3.4254011511802673e-01</internalNodes>
          <leafValues>
            -8.8607746362686157e-01 9.8991054296493530e-01</leafValues></_></weakClassifiers></_>
    <!-- stage 2 -->
    <_>
      <maxWeakCount>2</maxWeakCount>
      <stageThreshold>-2.0569276809692383e-01</stageThreshold>
      <weakClassifiers>
        <_>
          <internalNodes>
            0 -1 3 -4.5446383953094482e-01</internalNodes>
          <leafValues>
            9.6666663885116577e-01 -9.4169098138809204e-01</leafValues></_>
        <_>
          <internalNodes>
            0 -1 8 -1.0555916279554367e-01</internalNodes>
          <leafValues>
            7.3599821329116821e-01 -1.</leafValues></_></weakClassifiers></_>
    <!-- stage 3 -->
    <_>
      <maxWeakCount>2</maxWeakCount>
      <stageThreshold>-2.0541416108608246e-01</stageThreshold>
      <weakClassifiers>
        <_>
          <internalNodes>
            0 -1 6 -2.9458469152450562e-01</internalNodes>
          <leafValues>
            7.1014493703842163e-01 -9.4117647409439087e-01</leafValues></_>
        <_>
          <internalNodes>
            0 -1 2 2.1231645345687866e-01</internalNodes>
          <leafValues>
            -8.6316448450088501e-01 7.3576229810714722e-01</leafValues></_></weakClassifiers></_>
    <!-- stage 4 -->
    <_>
      <maxWeakCount>3</maxWeakCount>
      <stageThreshold>-1.2977772951126099e+00</stageThreshold>
      <weakClassifiers>
        <_>
          <internalNodes>
            0 -1 10 9.3482568860054016e-02</internalNodes>
          <leafValues>
            -9.4157743453979492e-01 9.0322577953338623e-01</leafValues></_>
        <_>
          <internalNodes>
            0 -1 7 1.1167636513710022e-01</internalNodes>
          <leafValues>
            -8.2753825187683105e-01 8.0258321762084961e-01</leafValues></_>
        <_>
          <internalNodes>
            0 -1 0 2.3627765476703644e-03</internalNodes>
          <leafValues>
            -1. 4.7133836150169373e-01</leafValues></_></weakClassifiers></_></stages>
  <features>
    <_>
      <rects>
        <_>
          0 0 3 29 -1.</_>
        <_>
          1 0 1 29 3.</_></rects>
      <tilted>0</tilted></_>
    <_>
      <rects>
        <_>
          0 0 20 2 -1.</_>
        <_>
          0 1 20 1 2.</_></rects>
      <tilted>0</tilted></_>
    <_>
      <rects>
        <_>
          0 9 24 12 -1.</_>
        <_>
          8 9 8 12 3.</_></rects>
      <tilted>0</tilted></_>
    <_>
      <rects>
        <_>
          0 20 24 28 -1.</_>
        <_>
          8 20 8 28 3.</_></rects>
      <tilted>0</tilted></_>
    <_>
      <rects>
        <_>
          1 5 21 43 -1.</_>
        <_>
          8 5 7 43 3.</_></rects>
      <tilted>0</tilted></_>
    <_>
      <rects>
        <_>
          1 9 21 34 -1.</_>
        <_>
          8 9 7 34 3.</_></rects>
      <tilted>0</tilted></_>
    <_>
      <rects>
        <_>
          2 0 17 38 -1.</_>
        <_>
          2 19 17 19 2.</_></rects>
      <tilted>0</tilted></_>
    <_>
      <rects>
        <_>
          2 17 12 23 -1.</_>
        <_>
          6 17 4 23 3.</_></rects>
      <tilted>0</tilted></_>
    <_>
      <rects>
        <_>
          4 33 15 14 -1.</_>
        <_>
          4 40 15 7 2.</_></rects>
      <tilted>0</tilted></_>
    <_>
      <rects>
        <_>
          5 22 12 8 -1.</_>
        <_>
          5 26 12 4 2.</_></rects>
      <tilted>0</tilted></_>
    <_>
      <rects>
        <_>
          10 0 14 17 -1.</_>
        <_>
          17 0 7 17 2.</_></rects>
      <tilted>0</tilted></_></features></cascade>
</opencv_storage>
